svm_type c_svc
kernel_type rbf
gamma 0.333333
nr_class 2
total_sv 388
rho -0.936665
label 1 -1
nr_sv 197 191
SV
1 1:-0.997208 2:-0.991794 3:-0.948354 
1 1:-0.9945 2:-0.984152 3:-0.950584 
1 1:-0.963248 2:-0.902468 3:-0.936844 
1 1:-0.991374 2:-0.980983 3:-0.905186 
1 1:-0.96853 2:-0.926509 3:-0.894297 
1 1:-0.89972 2:-0.773583 3:-0.86619 
1 1:-0.905408 2:-0.783231 3:-0.873493 
1 1:-0.934941 2:-0.850237 3:-0.87927 
1 1:-0.931871 2:-0.840045 3:-0.887066 
1 1:-0.958412 2:-0.902197 3:-0.893056 
1 1:-0.972979 2:-0.93653 3:-0.898474 
1 1:-0.937601 2:-0.850805 3:-0.895362 
1 1:-0.948524 2:-0.874726 3:-0.903937 
1 1:-0.971413 2:-0.930618 3:-0.908398 
1 1:-0.98515 2:-0.964085 3:-0.915039 
1 1:-0.986463 2:-0.966824 3:-0.91931 
1 1:-0.918798 2:-0.797684 3:-0.910652 
1 1:-0.957724 2:-0.894101 3:-0.916101 
1 1:-0.959088 2:-0.895908 3:-0.921879 
1 1:-0.96796 2:-0.918394 3:-0.923431 
1 1:-0.97223 2:-0.928281 3:-0.928579 
1 1:-0.99095 2:-0.976284 3:-0.936148 
1 1:-0.978138 2:-0.941102 3:-0.941752 
1 1:-0.98692 2:-0.963235 3:-0.951329 
1 1:-0.99134 2:-0.976012 3:-0.946513 
1 1:-0.99234 2:-0.978548 3:-0.947982 
1 1:-0.997971 2:-0.99323 3:-0.955452 
1 1:-0.945491 2:-0.857569 3:-0.930712 
1 1:-0.96379 2:-0.909681 3:-0.915584 
1 1:-0.985046 2:-0.962552 3:-0.92357 
1 1:-0.987456 2:-0.968536 3:-0.925364 
1 1:-0.969054 2:-0.920296 3:-0.927271 
1 1:-0.952261 2:-0.879407 3:-0.918534 
1 1:-0.966925 2:-0.915223 3:-0.92539 
1 1:-0.955261 2:-0.882807 3:-0.932009 
1 1:-0.958952 2:-0.890355 3:-0.939004 
1 1:-0.944519 2:-0.853754 3:-0.933965 
1 1:-0.977827 2:-0.940162 3:-0.942249 
1 1:-0.973105 2:-0.928074 3:-0.939552 
1 1:-0.991141 2:-0.975799 3:-0.94397 
1 1:-0.98483 2:-0.957307 3:-0.952381 
1 1:-0.996703 2:-0.988964 3:-0.962772 
1 1:-0.931372 2:-0.819292 3:-0.933294 
1 1:-0.94246 2:-0.845873 3:-0.939923 
1 1:-0.969146 2:-0.914155 3:-0.95217 
1 1:-0.991766 2:-0.975186 3:-0.961656 
1 1:-0.967291 2:-0.907161 3:-0.958748 
1 1:-0.941789 2:-0.838741 3:-0.95235 
1 1:-0.997022 2:-0.98951 3:-0.966218 
1 1:-0.993732 2:-0.979736 3:-0.969499 
1 1:-0.986643 2:-0.960279 3:-0.964534 
1 1:-0.988962 2:-0.96879 3:-0.951716 
1 1:-0.970666 2:-0.923124 3:-0.933069 
1 1:-0.936483 2:-0.839194 3:-0.918129 
1 1:-0.92241 2:-0.802405 3:-0.919788 
1 1:-0.986929 2:-0.965038 3:-0.939884 
1 1:-0.979135 2:-0.944043 3:-0.940448 
1 1:-0.983823 2:-0.955481 3:-0.94704 
1 1:-0.94473 2:-0.864876 3:-0.905184 
1 1:-0.954127 2:-0.885118 3:-0.915543 
1 1:-0.919722 2:-0.795686 3:-0.919434 
1 1:-0.918773 2:-0.797176 3:-0.91156 
1 1:-0.955612 2:-0.887597 3:-0.919791 
1 1:-0.968383 2:-0.916714 3:-0.934584 
1 1:-0.963865 2:-0.904741 3:-0.934605 
1 1:-0.961769 2:-0.897514 3:-0.940251 
1 1:-0.967036 2:-0.913537 3:-0.933085 
1 1:-0.937947 2:-0.831172 3:-0.945774 
1 1:-0.955494 2:-0.873752 3:-0.959924 
1 1:-0.987118 2:-0.960816 3:-0.969289 
1 1:-0.965593 2:-0.901655 3:-0.96125 
1 1:-0.983935 2:-0.949937 3:-0.978212 
1 1:-0.983749 2:-0.950241 3:-0.973998 
1 1:-0.965609 2:-0.897367 3:-0.975002 
1 1:-0.978084 2:-0.933615 3:-0.97489 
1 1:-0.964656 2:-0.89324 3:-0.979051 
1 1:-0.966477 2:-0.9005 3:-0.973072 
1 1:-0.981063 2:-0.938826 3:-0.990065 
1 1:-0.973604 2:-0.914435 3:-0.996582 
1 1:-0.964522 2:-0.896889 3:-0.966802 
1 1:-0.956656 2:-0.890372 3:-0.91947 
1 1:-0.929762 2:-0.823004 3:-0.915882 
1 1:-0.971012 2:-0.916033 3:-0.964401 
1 1:-0.991148 2:-0.973323 3:-0.962547 
1 1:-0.97195 2:-0.919932 3:-0.959716 
1 1:-0.983984 2:-0.950062 3:-0.978301 
1 1:-0.986959 2:-0.958717 3:-0.978584 
1 1:-0.993189 2:-0.975116 3:-0.991669 
1 1:-0.986901 2:-0.955838 3:-0.993024 
1 1:-0.990682 2:-0.966394 3:-0.998483 
1 1:-0.976476 2:-0.923306 3:-0.996299 
1 1:-0.972833 2:-0.919383 3:-0.971191 
1 1:-0.979944 2:-0.942485 3:-0.958965 
1 1:-0.955689 2:-0.879967 3:-0.943922 
1 1:-0.971971 2:-0.920449 3:-0.957959 
1 1:-0.978841 2:-0.938794 3:-0.96174 
1 1:-0.971423 2:-0.917193 3:-0.964415 
1 1:-0.9843 2:-0.956776 3:-0.947054 
1 1:-0.983828 2:-0.954814 3:-0.950885 
1 1:-0.96042 2:-0.903638 3:-0.906286 
1 1:-0.997022 2:-0.996164 3:-0.890622 
1 1:-0.935489 2:-0.856698 3:-0.864252 
1 1:-0.923421 2:-0.859323 3:-0.77209 
1 1:-0.962505 2:-0.933452 3:-0.786661 
1 1:-0.947175 2:-0.905614 3:-0.773014 
1 1:-0.952599 2:-0.913422 3:-0.787568 
1 1:-0.940028 2:-0.891069 3:-0.775357 
1 1:-0.868329 2:-0.751693 3:-0.771704 
1 1:-0.925214 2:-0.859859 3:-0.782718 
1 1:-0.949557 2:-0.907427 3:-0.787041 
1 1:-0.965456 2:-0.936013 3:-0.807469 
1 1:-0.950482 2:-0.90461 3:-0.808997 
1 1:-0.867418 2:-0.743857 3:-0.784704 
1 1:-0.935911 2:-0.878303 3:-0.793927 
1 1:-0.898729 2:-0.807731 3:-0.781098 
1 1:-0.931349 2:-0.869678 3:-0.791639 
1 1:-0.943782 2:-0.891446 3:-0.805813 
1 1:-0.880682 2:-0.758751 3:-0.810405 
0.5732192039711289 1:-0.815643 2:-0.681091 3:-0.714467 
1 1:-0.848497 2:-0.739277 3:-0.715973 
1 1:-0.828834 2:-0.700224 3:-0.723617 
1 1:-0.825575 2:-0.701213 3:-0.709691 
1 1:-0.928881 2:-0.822624 3:-0.911668 
1 1:-0.928697 2:-0.824487 3:-0.906302 
1 1:-0.944486 2:-0.848353 3:-0.947152 
1 1:-0.966798 2:-0.90626 3:-0.957125 
1 1:-0.995139 2:-0.98308 3:-0.975263 
1 1:-0.984277 2:-0.952345 3:-0.971023 
1 1:-0.971506 2:-0.916138 3:-0.969126 
1 1:-0.95164 2:-0.861529 3:-0.963505 
1 1:-0.957946 2:-0.879275 3:-0.963718 
1 1:-0.968921 2:-0.906474 3:-0.976682 
1 1:-0.954075 2:-0.864009 3:-0.974672 
1 1:-0.972076 2:-0.90996 3:-0.995929 
1 1:-0.965709 2:-0.889022 3:-1 
1 1:-0.963775 2:-0.906009 3:-0.929189 
1 1:-0.937278 2:-0.838201 3:-0.925494 
1 1:-0.936303 2:-0.833697 3:-0.930112 
1 1:-0.967616 2:-0.907861 3:-0.959467 
1 1:-0.967029 2:-0.90433 3:-0.965808 
1 1:-0.964988 2:-0.89484 3:-0.977185 
0.3992979865364877 1:-0.927536 2:-0.806375 3:-0.938944 
1 1:-0.959242 2:-0.892427 3:-0.934832 
1 1:-0.937571 2:-0.83376 3:-0.937684 
1 1:-0.959468 2:-0.883121 3:-0.965023 
1 1:-0.938721 2:-0.830083 3:-0.952797 
1 1:-0.951757 2:-0.869386 3:-0.943789 
1 1:-0.8498 2:-0.726033 3:-0.750311 
1 1:-0.917855 2:-0.826146 3:-0.83885 
1 1:-0.947112 2:-0.885483 3:-0.856797 
1 1:-0.925333 2:-0.831905 3:-0.86809 
1 1:-0.946592 2:-0.877364 3:-0.880635 
1 1:-0.901854 2:-0.788111 3:-0.845543 
1 1:-0.864941 2:-0.740158 3:-0.782109 
1 1:-0.944295 2:-0.872595 3:-0.878484 
1 1:-0.880843 2:-0.756537 3:-0.815774 
1 1:-0.805083 2:-0.709805 3:-0.614542 
1 1:-0.825084 2:-0.765196 3:-0.544421 
1 1:-0.780297 2:-0.749902 3:-0.39815 
1 1:-0.774938 2:-0.727206 3:-0.4506 
1 1:-0.652301 2:-0.629667 3:-0.308904 
1 1:-0.632609 2:-0.602504 3:-0.321667 
0.3506141310089566 1:-0.502379 2:-0.513069 3:-0.2014 
1 1:-0.0981848 2:-0.108332 3:-0.191325 
1 1:-0.694525 2:-0.674257 3:-0.31728 
1 1:-0.127807 2:-0.156337 3:-0.166616 
0.04066994457075003 1:-0.221497 2:-0.188752 3:-0.25451 
1 1:-0.551721 2:-0.52661 3:-0.287995 
1 1:-0.766291 2:-0.751307 3:-0.33284 
1 1:-0.729178 2:-0.706222 3:-0.340986 
1 1:-0.691441 2:-0.658298 3:-0.353054 
1 1:-0.657862 2:-0.621247 3:-0.347462 
0.03006570065176858 1:-0.622684 2:-0.551646 3:-0.40974 
1 1:-0.707987 2:-0.642761 3:-0.44593 
1 1:-0.679036 2:-0.637222 3:-0.370301 
1 1:-0.664907 2:-0.6746 3:-0.215871 
1 1:-0.693024 2:-0.695209 3:-0.245251 
1 1:-0.552122 2:-0.572392 3:-0.179294 
1 1:-0.153498 2:-0.193186 3:-0.150013 
0.5474670975979863 1:-0.281617 2:-0.31401 3:-0.157867 
1 1:-0.0620837 2:-0.0373546 3:-0.232899 
1 1:0.0860409 2:0.236844 3:-0.341584 
0.2952872455383299 1:0.543334 2:1 3:-0.462835 
1 1:0.0356139 2:0.453146 3:-0.536009 
1 1:-0.135424 2:0.318941 3:-0.604803 
1 1:-0.277697 2:0.110861 3:-0.61262 
0.6020065854495715 1:-0.93018 2:-0.981595 3:0.52621 
1 1:-0.91562 2:-0.968947 3:0.425098 
1 1:-0.927148 2:-0.975184 3:0.379266 
1 1:-0.93389 2:-0.979335 3:0.363754 
1 1:-0.910467 2:-0.962143 3:0.339968 
1 1:-0.502222 2:-0.774305 3:1 
0.4495784451861347 1:-0.606522 2:-0.819218 3:0.909337 
0.7117936594888847 1:-0.541966 2:-0.784556 3:0.904341 
1 1:-0.441793 2:-0.729292 3:0.887713 
1 1:-0.773795 2:-0.851399 3:0.199385 
1 1:-0.812935 2:-0.884126 3:0.229437 
-1 1:-0.998068 2:-0.994924 3:-0.939406 
-1 1:-1 2:-1 3:-0.940666 
-1 1:-0.995821 2:-0.988871 3:-0.939785 
-1 1:-0.997749 2:-0.993812 3:-0.942319 
-1 1:-0.998911 2:-0.99662 3:-0.946243 
-1 1:-0.999086 2:-0.997417 3:-0.942283 
-1 1:-0.994978 2:-0.986414 3:-0.9417 
-1 1:-0.99727 2:-0.992164 3:-0.946197 
-1 1:-0.996201 2:-0.989617 3:-0.94259 
-1 1:-0.991722 2:-0.977354 3:-0.944099 
-1 1:-0.990022 2:-0.971762 3:-0.951313 
-1 1:-0.99097 2:-0.974634 3:-0.949321 
-1 1:-0.993204 2:-0.984685 3:-0.913679 
-1 1:-0.993204 2:-0.984872 3:-0.911831 
-1 1:-0.982032 2:-0.956493 3:-0.913001 
-1 1:-0.989956 2:-0.976558 3:-0.912827 
-1 1:-0.979714 2:-0.950824 3:-0.911875 
-1 1:-0.969141 2:-0.927082 3:-0.898582 
-1 1:-0.955758 2:-0.891908 3:-0.906623 
-1 1:-0.964378 2:-0.915881 3:-0.896491 
-1 1:-0.982408 2:-0.961101 3:-0.888799 
-1 1:-0.963712 2:-0.916243 3:-0.888067 
-1 1:-0.974497 2:-0.943489 3:-0.880738 
-1 1:-0.978925 2:-0.954433 3:-0.877846 
-1 1:-0.975122 2:-0.945172 3:-0.879575 
-1 1:-0.978334 2:-0.952888 3:-0.878827 
-1 1:-0.968951 2:-0.930859 3:-0.878153 
-1 1:-0.926233 2:-0.831547 3:-0.874439 
-1 1:-0.9506 2:-0.890692 3:-0.866903 
-1 1:-0.879009 2:-0.725177 3:-0.867316 
-1 1:-0.91211 2:-0.798116 3:-0.875222 
-1 1:-0.980928 2:-0.956043 3:-0.898513 
-1 1:-0.982842 2:-0.96002 3:-0.903362 
-1 1:-0.959201 2:-0.902646 3:-0.898665 
-1 1:-0.958634 2:-0.902737 3:-0.893057 
-1 1:-0.91983 2:-0.810979 3:-0.88744 
-1 1:-0.969331 2:-0.928773 3:-0.892805 
-1 1:-0.978123 2:-0.94717 3:-0.909864 
-1 1:-0.980734 2:-0.953401 3:-0.91185 
-1 1:-0.959683 2:-0.901394 3:-0.907784 
-1 1:-0.977303 2:-0.945094 3:-0.909941 
-1 1:-0.979987 2:-0.951147 3:-0.914001 
-1 1:-0.973197 2:-0.93446 3:-0.911464 
-1 1:-0.969219 2:-0.923928 3:-0.913662 
-1 1:-0.984706 2:-0.961731 3:-0.923187 
-1 1:-0.998574 2:-0.997232 3:-0.927558 
-1 1:-0.989241 2:-0.972496 3:-0.930518 
-1 1:-0.978641 2:-0.945381 3:-0.926785 
-1 1:-0.987039 2:-0.967433 3:-0.925502 
-1 1:-0.992632 2:-0.982343 3:-0.922018 
-1 1:-0.994257 2:-0.98637 3:-0.923635 
-1 1:-0.994503 2:-0.986744 3:-0.926242 
-1 1:-0.993856 2:-0.984859 3:-0.928175 
-1 1:-0.983528 2:-0.957334 3:-0.93152 
-1 1:-0.991349 2:-0.978039 3:-0.930458 
-1 1:-0.952477 2:-0.875888 3:-0.930794 
-1 1:-0.950914 2:-0.878822 3:-0.909751 
-1 1:-0.962344 2:-0.906104 3:-0.915204 
-1 1:-0.943652 2:-0.858382 3:-0.915803 
-1 1:-0.9934 2:-0.983636 3:-0.928463 
-1 1:-0.985214 2:-0.962549 3:-0.926457 
-1 1:-0.992887 2:-0.981712 3:-0.933692 
-1 1:-0.98945 2:-0.971739 3:-0.940261 
-1 1:-0.982185 2:-0.953836 3:-0.931309 
-1 1:-0.958828 2:-0.892935 3:-0.929599 
-1 1:-0.991349 2:-0.977599 3:-0.934068 
-1 1:-0.984339 2:-0.959117 3:-0.933682 
-1 1:-0.986579 2:-0.964885 3:-0.934709 
-1 1:-0.970809 2:-0.922838 3:-0.93583 
-1 1:-0.990666 2:-0.974062 3:-0.947383 
-1 1:-0.995688 2:-0.988294 3:-0.941992 
-1 1:-0.991719 2:-0.977681 3:-0.941417 
-1 1:-0.988376 2:-0.967938 3:-0.946613 
-1 1:-0.967701 2:-0.914016 3:-0.937999 
-1 1:-0.989204 2:-0.96808 3:-0.960967 
-1 1:-0.996124 2:-0.988734 3:-0.949342 
-1 1:-0.976235 2:-0.934348 3:-0.949187 
-1 1:-0.98446 2:-0.961024 3:-0.92365 
-1 1:-0.975976 2:-0.940127 3:-0.918368 
-1 1:-0.941993 2:-0.854707 3:-0.914346 
-1 1:-0.985324 2:-0.962953 3:-0.925682 
-1 1:-0.981918 2:-0.955144 3:-0.91948 
-1 1:-0.971109 2:-0.928202 3:-0.916007 
-1 1:-0.970935 2:-0.926918 3:-0.919773 
-1 1:-0.980687 2:-0.951735 3:-0.920938 
-1 1:-0.974879 2:-0.936919 3:-0.92035 
-1 1:-0.969859 2:-0.923253 3:-0.923643 
-1 1:-0.960058 2:-0.898945 3:-0.919995 
-1 1:-0.960245 2:-0.900736 3:-0.915322 
-1 1:-0.916174 2:-0.790112 3:-0.912568 
-1 1:-0.929901 2:-0.819949 3:-0.923508 
-1 1:-0.983013 2:-0.954599 3:-0.93958 
-1 1:-0.966225 2:-0.909537 3:-0.939982 
-1 1:-0.971208 2:-0.920928 3:-0.947883 
-1 1:-0.986128 2:-0.963641 3:-0.935029 
-1 1:-0.977875 2:-0.942267 3:-0.932499 
-1 1:-0.976409 2:-0.93775 3:-0.935627 
-1 1:-0.94812 2:-0.864281 3:-0.931236 
-1 1:-0.987224 2:-0.963166 3:-0.956991 
-1 1:-0.994069 2:-0.981604 3:-0.962182 
-1 1:-0.993449 2:-0.979585 3:-0.964355 
-1 1:-0.990796 2:-0.974294 3:-0.948304 
-1 1:-0.984591 2:-0.956742 3:-0.951854 
-1 1:-0.966809 2:-0.909394 3:-0.94622 
-1 1:-0.980516 2:-0.948905 3:-0.934266 
-1 1:-0.920701 2:-0.804709 3:-0.905935 
-1 1:-0.909927 2:-0.770025 3:-0.920417 
-1 1:-0.797258 2:-0.498792 3:-0.904259 
-1 1:-0.962845 2:-0.901133 3:-0.937748 
-1 1:-0.950475 2:-0.877839 3:-0.909375 
-1 1:-0.889169 2:-0.72662 3:-0.905107 
-1 1:-0.831303 2:-0.592869 3:-0.893713 
-1 1:-0.909156 2:-0.777295 3:-0.903331 
-1 1:-0.886152 2:-0.720009 3:-0.903707 
-1 1:-0.963918 2:-0.90672 3:-0.927958 
-1 1:-0.899021 2:-0.743795 3:-0.917492 
-1 1:-0.942157 2:-0.849571 3:-0.928807 
-1 1:-0.895927 2:-0.735325 3:-0.918403 
-1 1:-0.982 2:-0.947095 3:-0.964686 
-1 1:-0.961005 2:-0.887652 3:-0.964519 
-1 1:-0.963366 2:-0.895168 3:-0.961955 
-1 1:-0.940934 2:-0.840992 3:-0.94179 
-1 1:-0.952338 2:-0.880494 3:-0.915771 
-1 1:-0.943419 2:-0.856919 3:-0.918158 
-1 1:-0.913342 2:-0.783376 3:-0.911757 
-1 1:-0.820103 2:-0.564441 3:-0.894978 
-1 1:-0.983081 2:-0.95323 3:-0.948327 
-1 1:-0.908439 2:-0.761627 3:-0.928382 
-1 1:-0.966174 2:-0.912483 3:-0.928441 
-1 1:-0.965103 2:-0.926369 3:-0.856126 
-1 1:-0.952258 2:-0.907325 3:-0.813527 
-1 1:-0.946062 2:-0.903623 3:-0.772108 
-1 1:-0.930898 2:-0.873742 3:-0.772909 
-1 1:-0.935162 2:-0.882732 3:-0.770302 
-1 1:-0.919749 2:-0.853134 3:-0.768661 
-1 1:-0.916598 2:-0.8456 3:-0.773314 
-1 1:-0.9254 2:-0.858825 3:-0.787626 
-1 1:-0.94071 2:-0.890211 3:-0.784835 
-1 1:-0.921926 2:-0.85011 3:-0.793381 
-1 1:-0.816893 2:-0.657113 3:-0.761775 
-1 1:-0.838337 2:-0.719898 3:-0.718444 
-1 1:-0.802012 2:-0.656255 3:-0.715228 
-1 1:-0.316501 2:0.124663 3:-0.662715 
-1 1:-0.0746265 2:0.559508 3:-0.677546 
-1 1:-0.868308 2:-0.677344 3:-0.901478 
-1 1:-0.987597 2:-0.961166 3:-0.975273 
-1 1:-0.964065 2:-0.898351 3:-0.958086 
-1 1:-0.929252 2:-0.808721 3:-0.94348 
-1 1:-0.952701 2:-0.86759 3:-0.955567 
-1 1:-0.9419 2:-0.862477 3:-0.891923 
-1 1:-0.928782 2:-0.853442 3:-0.828554 
-1 1:-0.883301 2:-0.772477 3:-0.791939 
-1 1:-0.73752 2:-0.526558 3:-0.734057 
-1 1:-0.643304 2:-0.342748 3:-0.743674 
-1 1:-0.890638 2:-0.767855 3:-0.835991 
-1 1:-0.938976 2:-0.868856 3:-0.850924 
-1 1:-0.898242 2:-0.791272 3:-0.820262 
-1 1:-0.835314 2:-0.688276 3:-0.769636 
-1 1:-0.960097 2:-0.895835 3:-0.931028 
-1 1:-0.849802 2:-0.676922 3:-0.838933 
-1 1:-0.868176 2:-0.763422 3:-0.74401 
-1 1:-0.793698 2:-0.680466 3:-0.640057 
-1 1:-0.765918 2:-0.721057 3:-0.434039 
-1 1:-0.756098 2:-0.725903 3:-0.380106 
-1 1:-0.683631 2:-0.677755 3:-0.269454 
-1 1:-0.50167 2:-0.493577 3:-0.242841 
-1 1:-0.442165 2:-0.45457 3:-0.195303 
-1 1:-0.346493 2:-0.335446 3:-0.23302 
-1 1:-0.250763 2:-0.264334 3:-0.188866 
-1 1:-0.503793 2:-0.473317 3:-0.289071 
-1 1:-0.689577 2:-0.661504 3:-0.33799 
-1 1:-0.712907 2:-0.698894 3:-0.304885 
-1 1:-0.778583 2:-0.780309 3:-0.270456 
-1 1:-0.660364 2:-0.654856 3:-0.262669 
-1 1:-0.771841 2:-0.779104 3:-0.243545 
-1 1:-0.512254 2:-0.506175 3:-0.239772 
-1 1:-0.464473 2:-0.48194 3:-0.185057 
-1 1:0.00346867 2:-0.0553149 3:-0.130015 
-1 1:-0.606724 2:-0.622864 3:-0.191844 
-1 1:-0.316412 2:-0.375331 3:-0.107064 
-1 1:0.0714463 2:-0.0319427 3:-0.076897 
-1 1:-0.306954 2:-0.293133 3:-0.234365 
-1 1:0.242582 2:0.745409 3:-0.535363 
-1 1:-0.345341 2:-0.693127 3:0.990172 
-1 1:-0.91655 2:-0.97334 3:0.53845 
-1 1:-0.91633 2:-0.973016 3:0.532572 
-1 1:-0.827322 2:-0.910231 3:0.430619 
-1 1:-0.807786 2:-0.907463 3:0.578857 
-1 1:-0.773758 2:-0.891046 3:0.642138 
-1 1:-0.804053 2:-0.917208 3:0.782652 
-1 1:-0.718065 2:-0.87497 3:0.862885 
